<?xml version="1.0"?>
<opencv_storage>
<cascade>
  <stageType>BOOST</stageType>
  <featureType>HAAR</featureType>
  <height>24</height>
  <width>24</width>
  <stageParams>
    <boostType>GAB</boostType>
    <minHitRate>9.9500000476837158e-01</minHitRate>
    <maxFalseAlarm>5.0000000000000000e-01</maxFalseAlarm>
    <weightTrimRate>9.4999998807907104e-01</weightTrimRate>
    <maxDepth>1</maxDepth>
    <maxWeakCount>100</maxWeakCount></stageParams>
  <featureParams>
    <maxCatCount>0</maxCatCount>
    <featSize>1</featSize>
    <mode>BASIC</mode></featureParams>
  <stageNum>15</stageNum>
  <stages>
    <!-- stage 0 -->
    <_>
      <maxWeakCount>4</maxWeakCount>
      <stageThreshold>-1.3281108140945435e+00</stageThreshold>
      <weakClassifiers>
        <_>
          <internalNodes>
            0 -1 57 1.6530242562294006e-01</internalNodes>
          <leafValues>
            -8.8051950931549072e-01 5.9420287609100342e-01</leafValues></_>
        <_>
          <internalNodes>
            0 -1 73 1.5167406760156155e-02</internalNodes>
          <leafValues>
            -6.0350233316421509e-01 5.3923666477203369e-01</leafValues></_>
        <_>
          <internalNodes>
            0 -1 59 -8.1405546516180038e-03</internalNodes>
          <leafValues>
            4.7417944669723511e-01 -5.6245428323745728e-01</leafValues></_>
        <_>
          <internalNodes>
            0 -1 55 3.6733304150402546e-03</internalNodes>
          <leafValues>
            -3.1826835870742798e-01 7.9737365245819092e-01</leafValues></_></weakClassifiers></_>
    <!-- stage 1 -->
    <_>
      <maxWeakCount>4</maxWeakCount>
      <stageThreshold>-1.1986893415451050e+00</stageThreshold>
      <weakClassifiers>
        <_>
          <internalNodes>
            0 -1 8 -4.1022741794586182e-01</internalNodes>
          <leafValues>
            3.0120483040809631e-01 -8.7061995267868042e-01</leafValues></_>
        <_>
          <internalNodes>
            0 -1 3 -9.4252085546031594e-05</internalNodes>
          <leafValues>
            -8.5556447505950928e-01 3.7435848265886307e-02</leafValues></_>
        <_>
          <internalNodes>
            0 -1 70 2.4173755198717117e-02</internalNodes>
          <leafValues>
            -4.6067073941230774e-01 5.3717476129531860e-01</leafValues></_>
        <_>
          <internalNodes>
            0 -1 72 -1.6177665384020656e-04</internalNodes>
          <leafValues>
            -9.0267997980117798e-01 2.4972859025001526e-01</leafValues></_></weakClassifiers></_>
    <!-- stage 2 -->
    <_>
      <maxWeakCount>5</maxWeakCount>
      <stageThreshold>-1.0700477361679077e+00</stageThreshold>
      <weakClassifiers>
        <_>
          <internalNodes>
            0 -1 11 -1.3216644525527954e-01</internalNodes>
          <leafValues>
            3.0434781312942505e-01 -8.2857143878936768e-01</leafValues></_>
        <_>
          <internalNodes>
            0 -1 21 2.4084668257273734e-04</internalNodes>
          <leafValues>
            6.6075831651687622e-02 -8.6900079250335693e-01</leafValues></_>
        <_>
          <internalNodes>
            0 -1 1 -2.9356425511650741e-04</internalNodes>
          <leafValues>
            -9.3157696723937988e-01 1.8340975046157837e-01</leafValues></_>
        <_>
          <internalNodes>
            0 -1 19 -1.0425852087792009e-04</internalNodes>
          <leafValues>
            -6.7141032218933105e-01 3.5417455434799194e-01</leafValues></_>
        <_>
          <internalNodes>
            0 -1 2 -2.1899217972531915e-04</internalNodes>
          <leafValues>
            -8.3165758848190308e-01 2.6985019445419312e-01</leafValues></_></weakClassifiers></_>
    <!-- stage 3 -->
    <_>
      <maxWeakCount>6</maxWeakCount>
      <stageThreshold>-1.3179247379302979e+00</stageThreshold>
      <weakClassifiers>
        <_>
          <internalNodes>
            0 -1 22 -6.4593136310577393e-02</internalNodes>
          <leafValues>
            6.4705884456634521e-01 -7.6190477609634399e-01</leafValues></_>
        <_>
          <internalNodes>
            0 -1 40 -7.1780532598495483e-02</internalNodes>
          <leafValues>
            4.7197711467742920e-01 -5.3591823577880859e-01</leafValues></_>
        <_>
          <internalNodes>
            0 -1 76 4.0344631997868419e-04</internalNodes>
          <leafValues>
            2.1030016243457794e-01 -1.</leafValues></_>
        <_>
          <internalNodes>
            0 -1 16 -1.1966698366450146e-04</internalNodes>
          <leafValues>
            -7.7562433481216431e-01 2.6248419284820557e-01</leafValues></_>
        <_>
          <internalNodes>
            0 -1 83 -3.6491584614850581e-04</internalNodes>
          <leafValues>
            -8.0474787950515747e-01 2.0121921598911285e-01</leafValues></_>
        <_>
          <internalNodes>
            0 -1 32 -2.6228781789541245e-03</internalNodes>
          <leafValues>
            3.4400320053100586e-01 -6.5596908330917358e-01</leafValues></_></weakClassifiers></_>
    <!-- stage 4 -->
    <_>
      <maxWeakCount>5</maxWeakCount>
      <stageThreshold>-1.5564875602722168e+00</stageThreshold>
      <weakClassifiers>
        <_>
          <internalNodes>
            0 -1 5 -4.1015576571226120e-02</internalNodes>
          <leafValues>
            1.3888889551162720e-01 -8.0628269910812378e-01</leafValues></_>
        <_>
          <internalNodes>
            0 -1 60 -6.2393294647336006e-03</internalNodes>
          <leafValues>
            5.9998351335525513e-01 -5.5952411890029907e-01</leafValues></_>
        <_>
          <internalNodes>
            0 -1 29 -1.9615368917584419e-02</internalNodes>
          <leafValues>
            4.4390746951103210e-01 -6.2507253885269165e-01</leafValues></_>
        <_>
          <internalNodes>
            0 -1 66 2.0804337691515684e-04</internalNodes>
          <leafValues>
            3.7957051396369934e-01 -7.0606553554534912e-01</leafValues></_>
        <_>
          <internalNodes>
            0 -1 9 1.2653089652303606e-04</internalNodes>
          <leafValues>
            2.7828085422515869e-01 -8.7369418144226074e-01</leafValues></_></weakClassifiers></_>
    <!-- stage 5 -->
    <_>
      <maxWeakCount>6</maxWeakCount>
      <stageThreshold>-1.3406996726989746e+00</stageThreshold>
      <weakClassifiers>
        <_>
          <internalNodes>
            0 -1 7 -4.9068447947502136e-01</internalNodes>
          <leafValues>
            3.0909091234207153e-01 -7.8947371244430542e-01</leafValues></_>
        <_>
          <internalNodes>
            0 -1 0 -1.2536943540908396e-04</internalNodes>
          <leafValues>
            -8.6424285173416138e-01 1.2274502217769623e-01</leafValues></_>
        <_>
          <internalNodes>
            0 -1 49 -7.8018710017204285e-02</internalNodes>
          <leafValues>
            3.0556273460388184e-01 -6.0416436195373535e-01</leafValues></_>
        <_>
          <internalNodes>
            0 -1 74 5.6697313993936405e-05</internalNodes>
          <leafValues>
            3.7534067034721375e-01 -5.7931047677993774e-01</leafValues></_>
        <_>
          <internalNodes>
            0 -1 14 1.7250762903131545e-04</internalNodes>
          <leafValues>
            2.9376634955406189e-01 -6.9742059707641602e-01</leafValues></_>
        <_>
          <internalNodes>
            0 -1 27 1.2002977746305987e-04</internalNodes>
          <leafValues>
            3.2953405380249023e-01 -6.6984099149703979e-01</leafValues></_></weakClassifiers></_>
    <!-- stage 6 -->
    <_>
      <maxWeakCount>5</maxWeakCount>
      <stageThreshold>-1.1584947109222412e+00</stageThreshold>
      <weakClassifiers>
        <_>
          <internalNodes>
            0 -1 64 6.5397426486015320e-02</internalNodes>
          <leafValues>
            -8.3522725105285645e-01 -3.9215687662363052e-02</leafValues></_>
        <_>
          <internalNodes>
            0 -1 34 -7.3086898773908615e-03</internalNodes>
          <leafValues>
            4.8247271776199341e-01 -4.7624346613883972e-01</leafValues></_>
        <_>
          <internalNodes>
            0 -1 38 -8.7690743384882808e-04</internalNodes>
          <leafValues>
            3.1602576375007629e-01 -5.8065909147262573e-01</leafValues></_>
        <_>
          <internalNodes>
            0 -1 77 7.8148033935576677e-05</internalNodes>
          <leafValues>
            2.1798363327980042e-01 -8.2281470298767090e-01</leafValues></_>
        <_>
          <internalNodes>
            0 -1 52 1.5930540859699249e-02</internalNodes>
          <leafValues>
            -2.8036004304885864e-01 7.4867415428161621e-01</leafValues></_></weakClassifiers></_>
    <!-- stage 7 -->
    <_>
      <maxWeakCount>6</maxWeakCount>
      <stageThreshold>-1.2699223756790161e+00</stageThreshold>
      <weakClassifiers>
        <_>
          <internalNodes>
            0 -1 33 1.3156327605247498e-01</internalNodes>
          <leafValues>
            -7.7892029285430908e-01 7.6923079788684845e-02</leafValues></_>
        <_>
          <internalNodes>
            0 -1 6 -3.6415574868442491e-05</internalNodes>
          <leafValues>
            -6.9875431060791016e-01 1.7567968368530273e-01</leafValues></_>
        <_>
          <internalNodes>
            0 -1 58 -6.5217940136790276e-03</internalNodes>
          <leafValues>
            4.9567508697509766e-01 -4.0575638413429260e-01</leafValues></_>
        <_>
          <internalNodes>
            0 -1 18 -1.5891183167695999e-02</internalNodes>
          <leafValues>
            6.6165632009506226e-01 -3.1846705079078674e-01</leafValues></_>
        <_>
          <internalNodes>
            0 -1 56 1.9589157309383154e-03</internalNodes>
          <leafValues>
            -2.3387257754802704e-01 7.7616918087005615e-01</leafValues></_>
        <_>
          <internalNodes>
            0 -1 4 4.5513734221458435e-05</internalNodes>
          <leafValues>
            3.3176824450492859e-01 -6.1001718044281006e-01</leafValues></_></weakClassifiers></_>
    <!-- stage 8 -->
    <_>
      <maxWeakCount>6</maxWeakCount>
      <stageThreshold>-1.7538833618164063e+00</stageThreshold>
      <weakClassifiers>
        <_>
          <internalNodes>
            0 -1 36 9.3790471553802490e-02</internalNodes>
          <leafValues>
            -7.8350514173507690e-01 9.0909093618392944e-02</leafValues></_>
        <_>
          <internalNodes>
            0 -1 84 5.1788119890261441e-05</internalNodes>
          <leafValues>
            1.0919923335313797e-01 -7.3851144313812256e-01</leafValues></_>
        <_>
          <internalNodes>
            0 -1 78 -1.1541364801814780e-04</internalNodes>
          <leafValues>
            -6.0446274280548096e-01 3.0135259032249451e-01</leafValues></_>
        <_>
          <internalNodes>
            0 -1 44 9.9044875241816044e-04</internalNodes>
          <leafValues>
            -3.8779681921005249e-01 4.2167890071868896e-01</leafValues></_>
        <_>
          <internalNodes>
            0 -1 80 -9.4757961051072925e-05</internalNodes>
          <leafValues>
            -6.9751667976379395e-01 2.7981337904930115e-01</leafValues></_>
        <_>
          <internalNodes>
            0 -1 35 2.5122305378317833e-03</internalNodes>
          <leafValues>
            -3.6713129281997681e-01 6.0708653926849365e-01</leafValues></_></weakClassifiers></_>
    <!-- stage 9 -->
    <_>
      <maxWeakCount>5</maxWeakCount>
      <stageThreshold>-9.8515844345092773e-01</stageThreshold>
      <weakClassifiers>
        <_>
          <internalNodes>
            0 -1 63 1.0517434030771255e-01</internalNodes>
          <leafValues>
            -7.8590077161788940e-01 4.2253520339727402e-02</leafValues></_>
        <_>
          <internalNodes>
            0 -1 51 3.6667726933956146e-02</internalNodes>
          <leafValues>
            -4.4452413916587830e-01 4.9424427747726440e-01</leafValues></_>
        <_>
          <internalNodes>
            0 -1 20 4.2747135012177750e-05</internalNodes>
          <leafValues>
            1.9238635897636414e-01 -7.3757708072662354e-01</leafValues></_>
        <_>
          <internalNodes>
            0 -1 67 1.5666002873331308e-03</internalNodes>
          <leafValues>
            -3.9504829049110413e-01 4.2256602644920349e-01</leafValues></_>
        <_>
          <internalNodes>
            0 -1 68 -8.2336238119751215e-04</internalNodes>
          <leafValues>
            5.6027758121490479e-01 -3.5540005564689636e-01</leafValues></_></weakClassifiers></_>
    <!-- stage 10 -->
    <_>
      <maxWeakCount>6</maxWeakCount>
      <stageThreshold>-1.0885573625564575e+00</stageThreshold>
      <weakClassifiers>
        <_>
          <internalNodes>
            0 -1 39 -2.2026311606168747e-02</internalNodes>
          <leafValues>
            -2.2222222387790680e-01 -8.2317072153091431e-01</leafValues></_>
        <_>
          <internalNodes>
            0 -1 20 -4.2448242311365902e-05</internalNodes>
          <leafValues>
            -7.1469730138778687e-01 1.0881865769624710e-01</leafValues></_>
        <_>
          <internalNodes>
            0 -1 53 1.8119948799721897e-04</internalNodes>
          <leafValues>
            1.8684378266334534e-01 -7.1552050113677979e-01</leafValues></_>
        <_>
          <internalNodes>
            0 -1 62 -4.9755233339965343e-04</internalNodes>
          <leafValues>
            3.5513505339622498e-01 -4.3339723348617554e-01</leafValues></_>
        <_>
          <internalNodes>
            0 -1 50 1.7867803107947111e-03</internalNodes>
          <leafValues>
            -3.9528098702430725e-01 4.2283761501312256e-01</leafValues></_>
        <_>
          <internalNodes>
            0 -1 43 2.2034640423953533e-03</internalNodes>
          <leafValues>
            -2.9833564162254333e-01 5.9424084424972534e-01</leafValues></_></weakClassifiers></_>
    <!-- stage 11 -->
    <_>
      <maxWeakCount>6</maxWeakCount>
      <stageThreshold>-1.1069757938385010e+00</stageThreshold>
      <weakClassifiers>
        <_>
          <internalNodes>
            0 -1 10 -3.3350467681884766e-02</internalNodes>
          <leafValues>
            -1.0891088843345642e-01 -8.1303113698959351e-01</leafValues></_>
        <_>
          <internalNodes>
            0 -1 46 -7.9790018498897552e-03</internalNodes>
          <leafValues>
            8.2859709858894348e-02 -6.7436856031417847e-01</leafValues></_>
        <_>
          <internalNodes>
            0 -1 25 -2.6801335811614990e-01</internalNodes>
          <leafValues>
            4.1113230586051941e-01 -4.2124700546264648e-01</leafValues></_>
        <_>
          <internalNodes>
            0 -1 17 1.5367898158729076e-03</internalNodes>
          <leafValues>
            1.5881283581256866e-01 -9.2520022392272949e-01</leafValues></_>
        <_>
          <internalNodes>
            0 -1 71 9.6896896138787270e-03</internalNodes>
          <leafValues>
            -2.0109534263610840e-01 7.3927664756774902e-01</leafValues></_>
        <_>
          <internalNodes>
            0 -1 12 -1.7296631122007966e-03</internalNodes>
          <leafValues>
            -8.0053883790969849e-01 2.0302732288837433e-01</leafValues></_></weakClassifiers></_>
    <!-- stage 12 -->
    <_>
      <maxWeakCount>7</maxWeakCount>
      <stageThreshold>-1.4079663753509521e+00</stageThreshold>
      <weakClassifiers>
        <_>
          <internalNodes>
            0 -1 13 1.9047734141349792e-01</internalNodes>
          <leafValues>
            -7.8918915987014771e-01 -7.1428574621677399e-02</leafValues></_>
        <_>
          <internalNodes>
            0 -1 30 -1.1884892359375954e-02</internalNodes>
          <leafValues>
            3.7666541337966919e-01 -4.5791164040565491e-01</leafValues></_>
        <_>
          <internalNodes>
            0 -1 75 1.3239146210253239e-03</internalNodes>
          <leafValues>
            1.7100295424461365e-01 -7.7976107597351074e-01</leafValues></_>
        <_>
          <internalNodes>
            0 -1 15 -9.6898133051581681e-05</internalNodes>
          <leafValues>
            -6.4492028951644897e-01 2.2487060725688934e-01</leafValues></_>
        <_>
          <internalNodes>
            0 -1 54 -1.3437061570584774e-03</internalNodes>
          <leafValues>
            2.6061704754829407e-01 -5.7138824462890625e-01</leafValues></_>
        <_>
          <internalNodes>
            0 -1 47 -2.5780277792364359e-04</internalNodes>
          <leafValues>
            4.1261273622512817e-01 -3.7097209692001343e-01</leafValues></_>
        <_>
          <internalNodes>
            0 -1 65 4.5600615441799164e-02</internalNodes>
          <leafValues>
            -3.6017808318138123e-01 4.3147236108779907e-01</leafValues></_></weakClassifiers></_>
    <!-- stage 13 -->
    <_>
      <maxWeakCount>8</maxWeakCount>
      <stageThreshold>-1.7808532714843750e+00</stageThreshold>
      <weakClassifiers>
        <_>
          <internalNodes>
            0 -1 45 -8.5154231637716293e-03</internalNodes>
          <leafValues>
            9.8039217293262482e-02 -7.5186103582382202e-01</leafValues></_>
        <_>
          <internalNodes>
            0 -1 69 -1.0780698357848451e-04</internalNodes>
          <leafValues>
            -6.4659923315048218e-01 1.1007899045944214e-01</leafValues></_>
        <_>
          <internalNodes>
            0 -1 31 3.6170803941786289e-03</internalNodes>
          <leafValues>
            -2.7126824855804443e-01 5.0319176912307739e-01</leafValues></_>
        <_>
          <internalNodes>
            0 -1 79 8.6905070929788053e-05</internalNodes>
          <leafValues>
            2.1623273193836212e-01 -6.4527887105941772e-01</leafValues></_>
        <_>
          <internalNodes>
            0 -1 41 -6.8214312195777893e-03</internalNodes>
          <leafValues>
            4.5595026016235352e-01 -2.7322265505790710e-01</leafValues></_>
        <_>
          <internalNodes>
            0 -1 82 -2.7779700758401304e-05</internalNodes>
          <leafValues>
            -6.4188265800476074e-01 2.3630274832248688e-01</leafValues></_>
        <_>
          <internalNodes>
            0 -1 61 -2.3467263672500849e-03</internalNodes>
          <leafValues>
            -7.9411810636520386e-01 1.8638299405574799e-01</leafValues></_>
        <_>
          <internalNodes>
            0 -1 23 5.4400786757469177e-04</internalNodes>
          <leafValues>
            -3.8976901769638062e-01 3.6728531122207642e-01</leafValues></_></weakClassifiers></_>
    <!-- stage 14 -->
    <_>
      <maxWeakCount>8</maxWeakCount>
      <stageThreshold>-1.0005087852478027e+00</stageThreshold>
      <weakClassifiers>
        <_>
          <internalNodes>
            0 -1 26 -2.8698575496673584e-01</internalNodes>
          <leafValues>
            -2.1100917458534241e-01 -7.9710143804550171e-01</leafValues></_>
        <_>
          <internalNodes>
            0 -1 28 -1.8683668226003647e-02</internalNodes>
          <leafValues>
            1.4701418578624725e-01 -5.2965712547302246e-01</leafValues></_>
        <_>
          <internalNodes>
            0 -1 85 -1.0575705673545599e-03</internalNodes>
          <leafValues>
            -5.4114300012588501e-01 2.4438269436359406e-01</leafValues></_>
        <_>
          <internalNodes>
            0 -1 81 4.6788773033767939e-05</internalNodes>
          <leafValues>
            3.0393722653388977e-01 -5.1118779182434082e-01</leafValues></_>
        <_>
          <internalNodes>
            0 -1 24 4.2659267783164978e-03</internalNodes>
          <leafValues>
            -2.5222891569137573e-01 5.4117512702941895e-01</leafValues></_>
        <_>
          <internalNodes>
            0 -1 42 -5.3320877486839890e-04</internalNodes>
          <leafValues>
            2.4689947068691254e-01 -6.1157155036926270e-01</leafValues></_>
        <_>
          <internalNodes>
            0 -1 48 -1.3289832277223468e-03</internalNodes>
          <leafValues>
            -6.4554274082183838e-01 2.4962405860424042e-01</leafValues></_>
        <_>
          <internalNodes>
            0 -1 37 1.9365377957001328e-03</internalNodes>
          <leafValues>
            -2.4786926805973053e-01 6.6797089576721191e-01</leafValues></_></weakClassifiers></_></stages>
  <features>
    <_>
      <rects>
        <_>
          0 0 1 3 -1.</_>
        <_>
          0 1 1 1 3.</_></rects>
      <tilted>0</tilted></_>
    <_>
      <rects>
        <_>
          0 0 3 2 -1.</_>
        <_>
          1 0 1 2 3.</_></rects>
      <tilted>0</tilted></_>
    <_>
      <rects>
        <_>
          0 0 4 2 -1.</_>
        <_>
          0 0 2 1 2.</_>
        <_>
          2 1 2 1 2.</_></rects>
      <tilted>0</tilted></_>
    <_>
      <rects>
        <_>
          0 0 6 1 -1.</_>
        <_>
          3 0 3 1 2.</_></rects>
      <tilted>0</tilted></_>
    <_>
      <rects>
        <_>
          0 0 3 2 -1.</_>
        <_>
          0 1 3 1 2.</_></rects>
      <tilted>0</tilted></_>
    <_>
      <rects>
        <_>
          0 0 10 14 -1.</_>
        <_>
          0 0 5 7 2.</_>
        <_>
          5 7 5 7 2.</_></rects>
      <tilted>0</tilted></_>
    <_>
      <rects>
        <_>
          0 1 1 6 -1.</_>
        <_>
          0 4 1 3 2.</_></rects>
      <tilted>0</tilted></_>
    <_>
      <rects>
        <_>
          0 1 24 16 -1.</_>
        <_>
          8 1 8 16 3.</_></rects>
      <tilted>0</tilted></_>
    <_>
      <rects>
        <_>
          0 2 24 20 -1.</_>
        <_>
          8 2 8 20 3.</_></rects>
      <tilted>0</tilted></_>
    <_>
      <rects>
        <_>
          0 3 1 3 -1.</_>
        <_>
          0 4 1 1 3.</_></rects>
      <tilted>0</tilted></_>
    <_>
      <rects>
        <_>
          0 3 8 8 -1.</_>
        <_>
          4 3 4 8 2.</_></rects>
      <tilted>0</tilted></_>
    <_>
      <rects>
        <_>
          0 5 10 16 -1.</_>
        <_>
          5 5 5 16 2.</_></rects>
      <tilted>0</tilted></_>
    <_>
      <rects>
        <_>
          0 10 1 6 -1.</_>
        <_>
          0 13 1 3 2.</_></rects>
      <tilted>0</tilted></_>
    <_>
      <rects>
        <_>
          0 10 19 14 -1.</_>
        <_>
          0 17 19 7 2.</_></rects>
      <tilted>0</tilted></_>
    <_>
      <rects>
        <_>
          0 19 1 4 -1.</_>
        <_>
          0 21 1 2 2.</_></rects>
      <tilted>0</tilted></_>
    <_>
      <rects>
        <_>
          0 20 2 4 -1.</_>
        <_>
          0 20 1 2 2.</_>
        <_>
          1 22 1 2 2.</_></rects>
      <tilted>0</tilted></_>
    <_>
      <rects>
        <_>
          0 20 2 3 -1.</_>
        <_>
          0 21 2 1 3.</_></rects>
      <tilted>0</tilted></_>
    <_>
      <rects>
        <_>
          0 22 6 1 -1.</_>
        <_>
          3 22 3 1 2.</_></rects>
      <tilted>0</tilted></_>
    <_>
      <rects>
        <_>
          1 0 12 6 -1.</_>
        <_>
          1 0 6 3 2.</_>
        <_>
          7 3 6 3 2.</_></rects>
      <tilted>0</tilted></_>
    <_>
      <rects>
        <_>
          2 0 3 1 -1.</_>
        <_>
          3 0 1 1 3.</_></rects>
      <tilted>0</tilted></_>
    <_>
      <rects>
        <_>
          2 0 2 2 -1.</_>
        <_>
          2 0 1 1 2.</_>
        <_>
          3 1 1 1 2.</_></rects>
      <tilted>0</tilted></_>
    <_>
      <rects>
        <_>
          2 0 3 2 -1.</_>
        <_>
          3 0 1 2 3.</_></rects>
      <tilted>0</tilted></_>
    <_>
      <rects>
        <_>
          2 5 6 12 -1.</_>
        <_>
          5 5 3 12 2.</_></rects>
      <tilted>0</tilted></_>
    <_>
      <rects>
        <_>
          2 6 6 1 -1.</_>
        <_>
          4 6 2 1 3.</_></rects>
      <tilted>0</tilted></_>
    <_>
      <rects>
        <_>
          3 0 4 8 -1.</_>
        <_>
          3 0 2 4 2.</_>
        <_>
          5 4 2 4 2.</_></rects>
      <tilted>0</tilted></_>
    <_>
      <rects>
        <_>
          3 1 21 22 -1.</_>
        <_>
          10 1 7 22 3.</_></rects>
      <tilted>0</tilted></_>
    <_>
      <rects>
        <_>
          3 3 20 21 -1.</_>
        <_>
          3 10 20 7 3.</_></rects>
      <tilted>0</tilted></_>
    <_>
      <rects>
        <_>
          3 23 6 1 -1.</_>
        <_>
          5 23 2 1 3.</_></rects>
      <tilted>0</tilted></_>
    <_>
      <rects>
        <_>
          4 0 6 8 -1.</_>
        <_>
          4 4 6 4 2.</_></rects>
      <tilted>0</tilted></_>
    <_>
      <rects>
        <_>
          4 0 13 6 -1.</_>
        <_>
          4 3 13 3 2.</_></rects>
      <tilted>0</tilted></_>
    <_>
      <rects>
        <_>
          4 1 3 6 -1.</_>
        <_>
          4 4 3 3 2.</_></rects>
      <tilted>0</tilted></_>
    <_>
      <rects>
        <_>
          4 3 6 4 -1.</_>
        <_>
          4 3 3 2 2.</_>
        <_>
          7 5 3 2 2.</_></rects>
      <tilted>0</tilted></_>
    <_>
      <rects>
        <_>
          4 9 8 4 -1.</_>
        <_>
          8 9 4 4 2.</_></rects>
      <tilted>0</tilted></_>
    <_>
      <rects>
        <_>
          4 14 13 10 -1.</_>
        <_>
          4 19 13 5 2.</_></rects>
      <tilted>0</tilted></_>
    <_>
      <rects>
        <_>
          5 8 4 12 -1.</_>
        <_>
          5 8 2 6 2.</_>
        <_>
          7 14 2 6 2.</_></rects>
      <tilted>0</tilted></_>
    <_>
      <rects>
        <_>
          5 13 8 2 -1.</_>
        <_>
          5 13 4 1 2.</_>
        <_>
          9 14 4 1 2.</_></rects>
      <tilted>0</tilted></_>
    <_>
      <rects>
        <_>
          5 16 13 8 -1.</_>
        <_>
          5 20 13 4 2.</_></rects>
      <tilted>0</tilted></_>
    <_>
      <rects>
        <_>
          5 17 4 2 -1.</_>
        <_>
          5 17 2 1 2.</_>
        <_>
          7 18 2 1 2.</_></rects>
      <tilted>0</tilted></_>
    <_>
      <rects>
        <_>
          6 0 2 16 -1.</_>
        <_>
          7 0 1 16 2.</_></rects>
      <tilted>0</tilted></_>
    <_>
      <rects>
        <_>
          6 0 6 6 -1.</_>
        <_>
          6 3 6 3 2.</_></rects>
      <tilted>0</tilted></_>
    <_>
      <rects>
        <_>
          6 0 18 8 -1.</_>
        <_>
          6 4 18 4 2.</_></rects>
      <tilted>0</tilted></_>
    <_>
      <rects>
        <_>
          6 16 10 8 -1.</_>
        <_>
          6 16 5 4 2.</_>
        <_>
          11 20 5 4 2.</_></rects>
      <tilted>0</tilted></_>
    <_>
      <rects>
        <_>
          7 1 1 20 -1.</_>
        <_>
          7 11 1 10 2.</_></rects>
      <tilted>0</tilted></_>
    <_>
      <rects>
        <_>
          7 21 8 2 -1.</_>
        <_>
          7 21 4 1 2.</_>
        <_>
          11 22 4 1 2.</_></rects>
      <tilted>0</tilted></_>
    <_>
      <rects>
        <_>
          8 0 2 10 -1.</_>
        <_>
          8 0 1 5 2.</_>
        <_>
          9 5 1 5 2.</_></rects>
      <tilted>0</tilted></_>
    <_>
      <rects>
        <_>
          8 0 7 2 -1.</_>
        <_>
          8 1 7 1 2.</_></rects>
      <tilted>0</tilted></_>
    <_>
      <rects>
        <_>
          8 6 7 8 -1.</_>
        <_>
          8 10 7 4 2.</_></rects>
      <tilted>0</tilted></_>
    <_>
      <rects>
        <_>
          8 15 3 2 -1.</_>
        <_>
          8 16 3 1 2.</_></rects>
      <tilted>0</tilted></_>
    <_>
      <rects>
        <_>
          9 0 8 2 -1.</_>
        <_>
          13 0 4 2 2.</_></rects>
      <tilted>0</tilted></_>
    <_>
      <rects>
        <_>
          9 0 9 18 -1.</_>
        <_>
          9 9 9 9 2.</_></rects>
      <tilted>0</tilted></_>
    <_>
      <rects>
        <_>
          9 6 2 18 -1.</_>
        <_>
          9 6 1 9 2.</_>
        <_>
          10 15 1 9 2.</_></rects>
      <tilted>0</tilted></_>
    <_>
      <rects>
        <_>
          9 18 8 6 -1.</_>
        <_>
          9 21 8 3 2.</_></rects>
      <tilted>0</tilted></_>
    <_>
      <rects>
        <_>
          10 16 8 8 -1.</_>
        <_>
          10 16 4 4 2.</_>
        <_>
          14 20 4 4 2.</_></rects>
      <tilted>0</tilted></_>
    <_>
      <rects>
        <_>
          10 23 3 1 -1.</_>
        <_>
          11 23 1 1 3.</_></rects>
      <tilted>0</tilted></_>
    <_>
      <rects>
        <_>
          11 6 1 12 -1.</_>
        <_>
          11 10 1 4 3.</_></rects>
      <tilted>0</tilted></_>
    <_>
      <rects>
        <_>
          11 12 1 6 -1.</_>
        <_>
          11 14 1 2 3.</_></rects>
      <tilted>0</tilted></_>
    <_>
      <rects>
        <_>
          11 15 4 2 -1.</_>
        <_>
          11 15 2 1 2.</_>
        <_>
          13 16 2 1 2.</_></rects>
      <tilted>0</tilted></_>
    <_>
      <rects>
        <_>
          12 2 12 21 -1.</_>
        <_>
          18 2 6 21 2.</_></rects>
      <tilted>0</tilted></_>
    <_>
      <rects>
        <_>
          12 3 10 4 -1.</_>
        <_>
          12 3 5 2 2.</_>
        <_>
          17 5 5 2 2.</_></rects>
      <tilted>0</tilted></_>
    <_>
      <rects>
        <_>
          12 5 1 18 -1.</_>
        <_>
          12 11 1 6 3.</_></rects>
      <tilted>0</tilted></_>
    <_>
      <rects>
        <_>
          13 3 8 4 -1.</_>
        <_>
          13 3 4 2 2.</_>
        <_>
          17 5 4 2 2.</_></rects>
      <tilted>0</tilted></_>
    <_>
      <rects>
        <_>
          14 2 3 5 -1.</_>
        <_>
          15 2 1 5 3.</_></rects>
      <tilted>0</tilted></_>
    <_>
      <rects>
        <_>
          15 0 2 10 -1.</_>
        <_>
          15 0 1 5 2.</_>
        <_>
          16 5 1 5 2.</_></rects>
      <tilted>0</tilted></_>
    <_>
      <rects>
        <_>
          15 4 8 14 -1.</_>
        <_>
          19 4 4 14 2.</_></rects>
      <tilted>0</tilted></_>
    <_>
      <rects>
        <_>
          16 2 8 12 -1.</_>
        <_>
          20 2 4 12 2.</_></rects>
      <tilted>0</tilted></_>
    <_>
      <rects>
        <_>
          16 13 8 11 -1.</_>
        <_>
          20 13 4 11 2.</_></rects>
      <tilted>0</tilted></_>
    <_>
      <rects>
        <_>
          17 0 6 1 -1.</_>
        <_>
          19 0 2 1 3.</_></rects>
      <tilted>0</tilted></_>
    <_>
      <rects>
        <_>
          17 3 6 4 -1.</_>
        <_>
          17 3 3 2 2.</_>
        <_>
          20 5 3 2 2.</_></rects>
      <tilted>0</tilted></_>
    <_>
      <rects>
        <_>
          17 14 4 3 -1.</_>
        <_>
          19 14 2 3 2.</_></rects>
      <tilted>0</tilted></_>
    <_>
      <rects>
        <_>
          17 20 3 3 -1.</_>
        <_>
          18 20 1 3 3.</_></rects>
      <tilted>0</tilted></_>
    <_>
      <rects>
        <_>
          18 1 4 18 -1.</_>
        <_>
          20 1 2 18 2.</_></rects>
      <tilted>0</tilted></_>
    <_>
      <rects>
        <_>
          18 12 4 8 -1.</_>
        <_>
          18 12 2 4 2.</_>
        <_>
          20 16 2 4 2.</_></rects>
      <tilted>0</tilted></_>
    <_>
      <rects>
        <_>
          19 0 2 2 -1.</_>
        <_>
          19 0 1 1 2.</_>
        <_>
          20 1 1 1 2.</_></rects>
      <tilted>0</tilted></_>
    <_>
      <rects>
        <_>
          19 8 4 10 -1.</_>
        <_>
          21 8 2 10 2.</_></rects>
      <tilted>0</tilted></_>
    <_>
      <rects>
        <_>
          20 0 3 1 -1.</_>
        <_>
          21 0 1 1 3.</_></rects>
      <tilted>0</tilted></_>
    <_>
      <rects>
        <_>
          20 15 4 3 -1.</_>
        <_>
          20 16 4 1 3.</_></rects>
      <tilted>0</tilted></_>
    <_>
      <rects>
        <_>
          21 0 2 1 -1.</_>
        <_>
          22 0 1 1 2.</_></rects>
      <tilted>0</tilted></_>
    <_>
      <rects>
        <_>
          21 0 3 1 -1.</_>
        <_>
          22 0 1 1 3.</_></rects>
      <tilted>0</tilted></_>
    <_>
      <rects>
        <_>
          21 0 3 3 -1.</_>
        <_>
          22 0 1 3 3.</_></rects>
      <tilted>0</tilted></_>
    <_>
      <rects>
        <_>
          21 23 3 1 -1.</_>
        <_>
          22 23 1 1 3.</_></rects>
      <tilted>0</tilted></_>
    <_>
      <rects>
        <_>
          22 3 1 3 -1.</_>
        <_>
          22 4 1 1 3.</_></rects>
      <tilted>0</tilted></_>
    <_>
      <rects>
        <_>
          22 20 2 4 -1.</_>
        <_>
          22 20 1 2 2.</_>
        <_>
          23 22 1 2 2.</_></rects>
      <tilted>0</tilted></_>
    <_>
      <rects>
        <_>
          23 0 1 4 -1.</_>
        <_>
          23 2 1 2 2.</_></rects>
      <tilted>0</tilted></_>
    <_>
      <rects>
        <_>
          23 1 1 6 -1.</_>
        <_>
          23 3 1 2 3.</_></rects>
      <tilted>0</tilted></_>
    <_>
      <rects>
        <_>
          23 3 1 3 -1.</_>
        <_>
          23 4 1 1 3.</_></rects>
      <tilted>0</tilted></_>
    <_>
      <rects>
        <_>
          23 4 1 18 -1.</_>
        <_>
          23 10 1 6 3.</_></rects>
      <tilted>0</tilted></_></features></cascade>
</opencv_storage>
